<?xml version="1.0"?>
<opencv_storage>
<opencv_ml_svm>
  <format>3</format>
  <svmType>C_SVC</svmType>
  <kernel>
    <type>LINEAR</type></kernel>
  <C>1.0000000000000001e-001</C>
  <term_criteria><iterations>1000</iterations></term_criteria>
  <var_count>324</var_count>
  <class_count>3</class_count>
  <class_labels type_id="opencv-matrix">
    <rows>3</rows>
    <cols>1</cols>
    <dt>i</dt>
    <data>
      + - x</data></class_labels>
  <sv_total>3</sv_total>
  <support_vectors>
    <_>
      3.14003881e-003 1.71463878e-004 -3.47822788e-005 -5.13889245e-005
      6.88596349e-003 7.60298281e-004 1.38946390e-003 9.69063898e-004
      2.94243498e-003 -4.80096638e-002 -3.66736553e-003 -2.64643058e-002
      1.86888862e-003 -1.11016259e-001 6.86866464e-004 1.43886646e-002
      5.21498267e-003 -2.19878182e-002 1.81913152e-001 7.09865708e-003
      1.00255164e-003 5.12424717e-003 4.66883183e-002 9.53385234e-003
      4.80728634e-002 7.82545805e-002 1.83746517e-001 6.24002591e-002
      1.44500146e-002 -5.27164526e-002 -2.00839508e-002 -9.94533226e-002
      -2.15835720e-002 3.16475406e-002 5.16142473e-002 1.39249265e-001
      -3.97520736e-002 7.54816341e-004 1.23059482e-003 6.95766509e-003
      1.17934965e-001 3.59363435e-003 -2.49996176e-003 5.20712754e-004
      -3.29764821e-002 -4.43703458e-002 4.65667760e-003 2.27628537e-002
      2.22421102e-002 7.60925487e-002 1.04666268e-002 -1.81323790e-003
      -1.08962832e-002 -5.62660098e-002 -1.48524316e-002 1.05212936e-002
      -1.14119519e-002 -1.32595794e-002 -2.50017270e-002
      -1.86195783e-002 -1.69017706e-002 9.31336172e-003 1.53080150e-002
      -1.88914631e-002 -7.20026251e-003 2.13598879e-003 -2.92197727e-002
      -2.06738394e-002 -1.30357808e-002 -2.12983303e-002 4.45235608e-004
      -1.17471144e-002 -3.20355520e-002 9.70095489e-003 5.79270571e-002
      4.90133651e-002 -2.36838050e-002 7.54821347e-003 -1.45497015e-002
      -1.65486578e-002 -6.53285608e-002 2.25709693e-004 -1.90249339e-004
      7.45693280e-004 4.31238255e-003 2.25295033e-002 4.19826759e-003
      2.17957096e-003 -9.95342343e-005 -6.71439193e-005 8.65449831e-002
      -9.25427023e-003 -3.40026431e-003 -1.98999234e-002
      -1.29779786e-001 -2.43628826e-002 -6.30910620e-002
      -3.65597109e-004 5.43729477e-002 1.30498976e-001 1.92409311e-003
      -2.35985802e-003 1.94527791e-003 5.28995460e-003 1.78966415e-003
      1.24462722e-002 4.82844375e-003 1.32312804e-001 1.51954979e-001
      3.85119999e-003 5.27212360e-005 3.86752607e-003 3.35486643e-002
      7.77503289e-003 4.53541800e-002 5.77190146e-002 1.56064540e-001
      1.29259527e-001 1.76628157e-002 1.38375605e-003 -1.36973732e-003
      -1.23830371e-001 -2.52664499e-002 1.72464941e-002 3.83231789e-002
      1.35132506e-001 1.30046844e-001 2.49132514e-003 -6.20311184e-004
      1.50387525e-003 1.91301238e-002 6.46252278e-003 3.84326056e-002
      3.41915675e-002 1.53723046e-001 1.16495423e-001 1.48200812e-002
      4.62913467e-003 2.46905489e-003 -1.36281163e-001 -1.44737447e-002
      1.06864514e-004 3.26222591e-002 1.07746102e-001 1.07294537e-001
      1.90412737e-002 2.65868437e-002 4.14245296e-005 -8.38903487e-002
      -7.17427442e-003 2.35912725e-002 2.86673307e-002 1.16103917e-001
      1.09327242e-001 1.89906508e-002 3.06052919e-002 -9.61122289e-003
      -1.08693838e-001 9.85301798e-004 3.82388458e-002 4.42645513e-002
      1.07804470e-001 8.41078907e-002 1.02562932e-002 1.41396038e-002
      -3.42974439e-003 -1.03070028e-001 6.48572482e-003 2.42558327e-002
      3.54656354e-002 7.72213787e-002 1.05290733e-001 1.81077141e-002
      6.80126389e-003 -2.05468331e-002 -1.05731919e-001 5.77923795e-003
      4.17945907e-002 6.19419292e-002 9.97735858e-002 1.27798423e-001
      1.04461960e-003 -6.88963709e-003 -2.16232054e-002 -2.47852728e-001
      -7.49636116e-003 7.67890690e-003 3.80524211e-002 1.28547698e-001
      1.47923231e-001 6.60290942e-003 -2.65510706e-003 3.63366475e-004
      -1.35576501e-002 4.55649337e-003 2.00974960e-002 1.99760646e-002
      1.50218681e-001 1.38216376e-001 -3.07434308e-003 -2.74911337e-002
      -2.95186788e-002 -2.31096208e-001 -1.43694011e-002 2.27211546e-002
      5.84204979e-002 1.35700181e-001 1.64864838e-001 7.25548482e-003
      -2.02125846e-003 -3.76252225e-004 -8.89514107e-003 6.78437296e-003
      2.70200428e-002 4.02171798e-002 1.64844126e-001 1.03546083e-001
      5.71190205e-004 -2.57185567e-003 -6.15936995e-004 -1.30274296e-002
      2.23478558e-003 2.42489856e-002 1.57479700e-002 1.16948806e-001
      3.35012488e-002 4.05285927e-003 -1.05872434e-002 6.40839920e-004
      6.06021844e-003 -1.72856636e-002 -4.20040749e-002 -4.05844022e-003
      4.31057215e-002 -1.77252595e-003 3.60418053e-004 1.26036652e-003
      8.70565884e-004 -5.19116037e-003 -5.68980286e-005 8.71302909e-004
      9.61157086e-004 -1.75220624e-003 -1.38665801e-002 1.17020856e-003
      -5.61801717e-004 3.62804043e-003 -7.64596760e-002 2.17455383e-002
      4.41587158e-002 7.00940704e-003 -9.81662143e-003 -2.78758965e-002
      -2.41311286e-002 -2.52944492e-002 -1.14111472e-002
      -1.39155090e-002 -6.09331019e-003 -2.64296010e-002
      -1.12926476e-002 -2.44416576e-002 -2.90146191e-002
      -3.57813612e-002 -4.15629409e-002 -2.17849854e-002 1.11085782e-002
      -8.04940425e-003 6.26237132e-003 5.53488219e-003 -2.34834552e-002
      -1.28588835e-002 -2.33228784e-003 -2.87355436e-003 1.31541619e-003
      9.16041508e-002 1.51792774e-002 3.30266468e-002 4.58041858e-003
      -6.65506255e-003 -3.93427163e-002 -1.56651884e-002
      -6.25432236e-003 6.51036156e-003 8.81120041e-002 1.52207520e-002
      3.68375853e-002 -5.15791448e-003 -1.78176481e-002 3.27832475e-002
      -5.77160455e-002 -7.24561214e-002 -2.70423759e-002
      -6.33787066e-002 -2.24935655e-002 -2.63037253e-002 2.66636852e-002
      2.91688163e-002 1.26364842e-001 1.05575414e-003 -2.47020228e-003
      -7.02798134e-004 -2.35926658e-002 6.99747587e-003 1.91595480e-002
      4.10278887e-002 1.25629172e-001 -7.53818452e-002 -3.17383669e-002
      -1.26384990e-002 -3.29448795e-003 1.32944388e-002 -2.30079331e-003
      -4.06274991e-003 -1.40142171e-002 -5.02533801e-002
      -1.28750131e-003 -1.56538677e-004 9.00980231e-005 2.76817009e-003
      1.16444277e-002 1.67144963e-003 -5.15224936e-004 -8.45224786e-005
      -2.14520143e-003</_>
    <_>
      -3.99249196e-002 1.21301878e-003 7.90629594e-004 -5.95477351e-004
      -1.05447009e-001 -4.51454669e-002 -1.23524852e-001
      -7.44409338e-002 -7.06509501e-002 -3.75011750e-002 4.71812952e-003
      3.71708870e-002 3.47587205e-002 1.64976176e-002 -4.25450951e-002
      -1.41895652e-001 -1.08422585e-001 -7.93456510e-002 8.90975446e-002
      3.07694282e-002 8.93231016e-003 3.32932384e-003 -1.87162422e-002
      -1.83458645e-002 -5.42225689e-002 2.63595022e-002 6.67829365e-002
      5.21197021e-002 4.00064141e-002 2.73834635e-002 2.37218905e-002
      4.15833704e-002 -7.44788051e-002 -1.12958916e-001 -1.02632627e-001
      3.83019634e-002 -6.96820160e-003 -6.14260510e-003 2.85343640e-002
      2.24062204e-002 5.77226914e-002 -9.45830438e-003 -6.55208230e-002
      -3.55685651e-002 -1.87715050e-002 -3.55381379e-003
      -3.33562233e-002 -3.66429128e-002 2.35497598e-002 5.80210350e-002
      1.49675040e-002 -1.58162881e-002 -9.86615010e-003 -1.61929859e-003
      1.89931858e-002 -3.42325121e-002 -2.55060885e-002 -1.71480924e-002
      6.17923103e-002 -5.34087047e-002 -1.44586623e-001 -1.13384433e-001
      -1.14068752e-002 1.68184433e-002 -8.35258365e-002 -7.89170638e-002
      -4.69659865e-002 6.25786930e-002 -1.45431720e-002 -6.30198941e-002
      -3.98095176e-002 9.65474360e-003 -1.31931575e-002 -7.35221207e-002
      -4.88867909e-002 3.88716981e-002 3.23774442e-002 8.94954428e-003
      -7.78558152e-003 -2.39124265e-003 -4.93030937e-004
      -6.87536448e-002 -1.43702060e-001 -1.62356883e-001
      -6.74547479e-002 -1.40332002e-002 -5.06686186e-003
      -2.48300331e-003 -5.48152020e-003 -3.06517165e-002 5.98300360e-002
      -1.36570692e-001 -1.30641475e-001 -3.64478789e-002 4.75135893e-002
      5.61141293e-004 7.39396503e-003 1.75213628e-002 8.44338462e-002
      4.98476848e-002 -1.24763004e-001 -1.47742316e-001 -7.08271042e-002
      -5.54415747e-004 -4.99874773e-003 2.01868210e-002 1.61864795e-002
      7.83621073e-002 4.41506281e-002 6.16675522e-003 -5.04505355e-003
      -5.33842295e-003 -6.74485089e-003 2.53341766e-003 2.23255251e-002
      4.28183861e-002 4.12365980e-002 1.44338328e-002 -1.15820160e-002
      -4.45034355e-002 -1.75282788e-002 2.83337720e-002 -4.07222845e-002
      -7.34835640e-002 -6.06694445e-002 8.33121501e-003 5.76617345e-002
      -4.54232693e-002 -6.38381019e-002 -3.01278699e-002
      -4.53795679e-003 3.43328342e-003 3.42823341e-002 3.18905823e-002
      8.27614516e-002 4.95478604e-003 -1.25115216e-001 -1.39699325e-001
      -7.73670152e-002 1.57020818e-002 -4.53701103e-003 -1.83715438e-003
      -8.16619769e-003 3.67256664e-002 3.72442976e-002 -2.01445520e-002
      -3.24433073e-002 -1.15159629e-002 2.83672865e-002 -3.70151065e-002
      -7.76561871e-002 -5.18884473e-002 4.09974419e-002 4.32311743e-002
      -3.38894613e-002 -3.83443721e-002 -2.63665114e-002 1.94286043e-003
      -4.47714105e-002 -4.70199697e-002 -1.76894683e-002 4.47724685e-002
      1.85259860e-002 -6.95725307e-002 -8.38095099e-002 -3.59570384e-002
      1.85335856e-002 1.36336393e-003 -1.48761794e-002 -3.31773795e-003
      3.00044622e-002 6.05489835e-002 -3.10807545e-002 -3.41543593e-002
      -2.69163977e-002 2.86017824e-002 -4.48814295e-002 -4.12130356e-002
      -1.97634716e-002 6.04672469e-002 2.73351613e-002 -4.63852994e-002
      -6.48416132e-002 -3.20014134e-002 -6.78876648e-003
      -2.73780003e-002 -1.87695436e-002 1.37598335e-003 4.10857536e-002
      3.16109844e-002 -5.16559631e-002 -6.44040704e-002 -2.50293296e-002
      -1.87554583e-002 -1.22541273e-002 -7.66689191e-003
      -1.49810174e-002 3.81582342e-002 7.09659830e-002 1.86095841e-003
      -1.50658144e-002 -1.23918103e-002 -2.30519623e-002
      -6.55477494e-002 -7.21358210e-002 -5.06071001e-002 4.78632897e-002
      5.61284237e-002 -4.07088315e-004 -9.85538401e-003 -3.10013490e-003
      -1.38914213e-002 -4.38610949e-002 -7.73717090e-002
      -7.32792392e-002 3.56797874e-002 6.94791898e-002 -9.86479819e-002
      -1.44670203e-001 -6.22096173e-002 -3.27226147e-002 9.56310425e-004
      2.20759660e-002 1.55581953e-002 1.14510007e-001 5.07702976e-002
      -1.57529742e-001 -1.67810708e-001 -8.87248069e-002 1.28383309e-001
      4.11151871e-002 7.39744455e-002 3.24837230e-002 1.14210196e-001
      -1.01715371e-001 -1.23455167e-001 -1.65786669e-001
      -8.49941373e-002 -8.62273574e-002 -1.44128576e-002
      -1.59994420e-002 -1.17919687e-002 -6.43047169e-002
      -6.29927740e-002 -1.08363084e-001 -1.38492808e-001
      -5.68097271e-002 6.99811354e-002 7.93062747e-002 6.81706890e-002
      1.19941356e-002 -2.32102368e-002 -2.82587130e-002 -1.04571752e-001
      -1.34540930e-001 -4.63735610e-002 3.67069319e-002 1.27024939e-002
      1.21323504e-002 -2.83494475e-003 -1.70203939e-003 -2.51067020e-002
      -4.39726897e-002 -6.04728945e-002 -6.95213536e-003 4.49392051e-002
      -1.95645448e-002 -4.80398983e-002 -5.79994135e-002
      -1.54275140e-002 -3.45390476e-002 -4.61931229e-002
      -6.69871271e-002 -1.73129775e-002 5.45144305e-002 6.07982017e-002
      5.23604378e-002 1.53704286e-002 -2.26049796e-002 -1.99620817e-002
      -1.69088710e-002 -3.43599841e-002 2.00574640e-002 4.95154150e-002
      4.99284491e-002 -5.95824001e-003 -1.78403668e-002 -2.95220818e-002
      8.61695185e-002 -3.14995204e-003 3.28849792e-003 1.43160559e-002
      3.08843236e-002 -2.30895411e-002 -5.49995117e-002 -4.41380106e-002
      4.85088229e-002 8.90642703e-002 -2.45003961e-004 2.26877257e-003
      5.90142841e-003 -2.74061481e-003 -8.40172023e-002 -9.79166552e-002
      -8.28650817e-002 3.36248726e-002 2.89530773e-003 3.63371079e-003
      -8.39078333e-003 2.83612777e-002 5.29249236e-002 1.73313133e-002
      -5.39168157e-002 -6.38125613e-002 -3.74709517e-002
      -3.75555679e-002 -8.43605085e-004 -6.93665072e-003 2.49400362e-003
      -3.05817612e-002 -1.11392893e-001 -1.56006679e-001
      -1.41106769e-001 -8.61897394e-002</_>
    <_>
      -3.31547484e-002 -1.22565310e-004 -5.43613918e-004
      -3.05264909e-003 -7.98316598e-002 -3.48666534e-002
      -8.94434378e-002 -5.84198236e-002 -5.92529699e-002 1.10594044e-002
      1.56313404e-002 5.00904135e-002 1.09607959e-002 5.79268374e-002
      -2.98285373e-002 -9.21798497e-002 -6.95332736e-002
      -3.92021127e-002 -3.81469093e-002 -2.13399041e-003
      -1.66184513e-003 -6.99147303e-003 -4.23247330e-002
      -2.28175949e-002 -7.50583336e-002 -4.87916321e-002
      -5.25830910e-002 -4.07763012e-003 -6.14573155e-003 5.33218384e-002
      7.15449732e-003 1.39442578e-001 -2.51505300e-002 -6.22006804e-002
      -9.52457190e-002 -6.69938922e-002 2.36606840e-002 3.33010312e-003
      1.72308758e-002 -1.10948272e-003 -8.43213778e-003 -3.63382045e-003
      -2.86252182e-002 -1.66559052e-002 1.06551154e-002 2.19709948e-002
      -1.40020037e-002 -2.30334550e-002 -2.53482088e-002
      -3.95297669e-002 2.15383107e-003 7.41989352e-003 6.00781711e-003
      2.64619756e-002 1.31522380e-002 -2.19375324e-002 4.15666029e-003
      -4.87652980e-003 5.93134500e-002 -2.48800516e-002 -7.46981129e-002
      -9.97076258e-002 -2.94419136e-002 2.91433185e-002 -2.11281944e-002
      -4.69598733e-002 -1.18593732e-003 4.49673235e-002 -1.68173457e-003
      -4.14977316e-004 -3.97183783e-002 7.44543038e-003 4.24236339e-003
      -3.90865169e-002 -5.66903576e-002 -2.13706326e-002 3.99769582e-002
      1.13244178e-002 2.55352333e-002 1.25133181e-002 2.97833774e-002
      -5.34239709e-002 -7.49942437e-002 -8.96643102e-002
      -4.91542220e-002 -5.37963547e-002 -5.15214168e-003
      -3.60631826e-003 -3.12190200e-003 -2.17465572e-002
      -4.55439743e-003 -5.85900620e-002 -6.33854121e-002
      -1.62537321e-002 1.12951770e-001 4.21596803e-002 8.96183029e-002
      3.74555166e-005 2.58893389e-002 -5.24631031e-002 -8.42852369e-002
      -9.27314237e-002 -5.60047403e-002 -1.44635523e-002
      -1.01369037e-003 -1.06226942e-002 -1.37886200e-002
      -3.13647613e-002 -4.27603424e-002 -7.05846353e-003
      -6.51673274e-003 -7.28828367e-003 -2.85243858e-002
      -8.98707286e-003 -2.01251414e-002 -1.94562357e-002
      -4.76809815e-002 -7.36077055e-002 -2.41400152e-002
      -2.00968832e-002 -2.23375037e-002 1.19399145e-001 -1.21629396e-002
      -5.32038733e-002 -7.14299381e-002 -9.09777060e-002
      -3.98100950e-002 -2.54398212e-002 -3.55884321e-002
      -1.52131943e-002 -3.76698896e-002 -1.04869185e-002
      -6.50959043e-003 -1.30836619e-002 -4.07332852e-002
      -7.20290840e-002 -7.28438720e-002 -7.74370953e-002
      -4.58863527e-002 1.38238281e-001 4.56748949e-003 2.45246483e-004
      -3.05646639e-002 -5.18148765e-002 -3.91244888e-002
      -2.28334554e-002 -2.44334526e-002 -1.20021626e-002 7.61438981e-002
      -1.61822345e-002 -5.61689734e-002 -5.77290766e-002
      -4.70737331e-002 -3.79330739e-002 -2.94293053e-002
      -4.71173413e-002 -8.47129989e-003 8.54083300e-002 -2.77748816e-002
      -4.94006425e-002 -5.51607795e-002 -4.02946584e-002
      -4.68592346e-002 -3.76857743e-002 -5.68186566e-002
      -1.79253444e-002 8.27743635e-002 -1.05108425e-003 -2.48324536e-002
      -2.68735476e-002 -3.62125263e-002 -4.19516303e-002
      -3.34225930e-002 -1.91261433e-002 2.02391529e-003 8.59328583e-002
      -3.25628556e-002 -5.20383567e-002 -6.35795295e-002
      -3.57770957e-002 -5.28728850e-002 -3.40700969e-002
      -4.46750186e-002 -1.23741422e-002 1.45053595e-001 -1.22549497e-002
      -1.79676805e-002 -3.63151878e-002 -4.49567400e-002
      -6.88930079e-002 -3.64947654e-002 -3.84706371e-002
      -2.08822880e-002 1.00860205e-002 -9.43753403e-003 -2.56429836e-002
      -2.76789311e-002 -6.56825677e-002 -3.84763107e-002 2.33647833e-003
      1.15485089e-002 7.57270167e-003 1.33509874e-001 -2.31326129e-002
      -5.92487119e-002 -7.78843686e-002 -5.45639694e-002
      -7.56348222e-002 -7.38022430e-003 -7.11036567e-003
      -6.88553788e-003 1.08615104e-002 -3.18657085e-002 -6.37575909e-002
      -6.91487640e-002 -8.57037455e-002 -3.65152359e-002
      -4.71216477e-002 -6.63935170e-002 -2.95879841e-002
      -2.65993420e-002 -3.45224072e-003 -3.84987611e-003
      -8.17433372e-003 -1.75667945e-002 -6.67669019e-003
      -8.35967585e-002 -8.68099332e-002 -4.98730950e-002 1.06593177e-001
      5.39516769e-002 9.35655534e-002 1.44637907e-002 2.57741474e-002
      -6.95050582e-002 -7.33112693e-002 -9.38021541e-002
      -4.88193221e-002 -5.43297417e-002 -1.19521441e-002
      -1.21997697e-002 -8.44336860e-003 -5.12113124e-002
      -4.90349457e-002 -6.53152615e-002 -8.69401470e-002
      -5.02854399e-002 8.73490870e-002 8.96594301e-003 4.30648634e-003
      -1.48919265e-004 -2.00463645e-002 -9.04382579e-003
      -4.32343744e-002 -7.61228204e-002 -2.41394956e-002 3.33337337e-002
      1.75693743e-002 3.18901651e-002 4.72833216e-003 6.69841468e-003
      -4.87715297e-004 -6.92073815e-003 -2.14358419e-002 1.34828072e-002
      2.34652534e-002 5.47461538e-003 -2.35358179e-002 -3.68941948e-002
      1.06455851e-002 -2.81153396e-002 -3.36838476e-002 -5.41954897e-002
      -1.74734350e-002 -2.03914773e-002 1.00586833e-002 7.18789222e-003
      5.12753706e-003 -1.37463054e-002 -2.14730622e-004 -9.60121746e-004
      -2.40371767e-002 7.53766199e-006 -2.60344427e-002 2.27810238e-002
      -3.74807254e-003 5.74246934e-003 -2.98858364e-003 3.00351884e-002
      4.41582762e-002 5.27855009e-002 2.75226571e-002 7.38802254e-002
      -1.24599738e-003 -3.18315178e-002 -6.24691918e-002 5.94936032e-003
      -5.08710854e-002 6.66200940e-004 4.86718630e-003 -1.41769613e-003
      1.37352105e-002 -6.27962202e-002 -9.18649882e-002 -9.53016430e-002
      -7.83351362e-002 4.23277691e-002 2.55833995e-002 2.80797854e-003
      1.47964694e-002 3.98496240e-002 9.63339210e-003 -2.27159914e-002
      -1.68886371e-002 2.10087504e-002 -2.01229900e-002 2.03020452e-003
      -1.85432984e-003 -5.51406434e-003 -3.04218810e-002
      -6.96355253e-002 -8.25644657e-002 -7.88543150e-002
      -4.73920815e-002</_></support_vectors>
  <decision_functions>
    <_>
      <sv_count>1</sv_count>
      <rho>1.7615537406934295e-001</rho>
      <alpha>
        1.</alpha>
      <index>
        0</index></_>
    <_>
      <sv_count>1</sv_count>
      <rho>-2.4993820118726490e-001</rho>
      <alpha>
        1.</alpha>
      <index>
        1</index></_>
    <_>
      <sv_count>1</sv_count>
      <rho>-1.9714644285514407e-001</rho>
      <alpha>
        1.</alpha>
      <index>
        2</index></_></decision_functions></opencv_ml_svm>
</opencv_storage>
